<?xml version="1.0"?>
<opencv_storage>
<cascade>
  <stageType>BOOST</stageType>
  <featureType>LBP</featureType>
  <height>46</height>
  <width>38</width>
  <stageParams>
    <boostType>GAB</boostType>
    <minHitRate>9.9500000476837158e-01</minHitRate>
    <maxFalseAlarm>5.0000000000000000e-01</maxFalseAlarm>
    <weightTrimRate>9.4999998807907104e-01</weightTrimRate>
    <maxDepth>1</maxDepth>
    <maxWeakCount>100</maxWeakCount></stageParams>
  <featureParams>
    <maxCatCount>256</maxCatCount>
    <featSize>1</featSize></featureParams>
  <stageNum>22</stageNum>
  <stages>
    <!-- stage 0 -->
    <_>
      <maxWeakCount>6</maxWeakCount>
      <stageThreshold>-1.4842364788055420e+00</stageThreshold>
      <weakClassifiers>
        <_>
          <internalNodes>
            0 -1 47 -3150198 -619206494 1099005985 -6307177 -280026486
            -1364590080 -11808769 -3145745</internalNodes>
          <leafValues>
            -7.2795969247817993e-01 5.0000000000000000e-01</leafValues></_>
        <_>
          <internalNodes>
            0 -1 32 -263786302 -792396896 365219904 -779756479
            -536682304 1073797182 -668735281 -69206017</internalNodes>
          <leafValues>
            -6.5822523832321167e-01 4.5640590786933899e-01</leafValues></_>
        <_>
          <internalNodes>
            0 -1 154 -226495998 -686309325 1075468826 1893194899
            671612928 -896824725 -890066230 -117443361</internalNodes>
          <leafValues>
            -5.8668410778045654e-01 4.8777213692665100e-01</leafValues></_>
        <_>
          <internalNodes>
            0 -1 25 -290458974 193121664 -1735138190 -170993662
            1485529063 -633127663 1131393235 -41945097</internalNodes>
          <leafValues>
            -5.4621648788452148e-01 4.3386197090148926e-01</leafValues></_>
        <_>
          <internalNodes>
            0 -1 134 -607001910 -547805036 1284525200 1494680128
            339779210 -557002818 1140899983 -618675461</internalNodes>
          <leafValues>
            -4.1415527462959290e-01 5.8369719982147217e-01</leafValues></_>
        <_>
          <internalNodes>
            0 -1 205 -750271486 326328390 1074806803 23286547 1880039427
            -368113661 543262762 1130627007</internalNodes>
          <leafValues>
            -4.8376858234405518e-01 4.6892589330673218e-01</leafValues></_></weakClassifiers></_>
    <!-- stage 1 -->
    <_>
      <maxWeakCount>8</maxWeakCount>
      <stageThreshold>-1.5054808855056763e+00</stageThreshold>
      <weakClassifiers>
        <_>
          <internalNodes>
            0 -1 58 -94183718 -758988664 -1878992647 1398923486
            -536348706 -1152802621 -633090325 -11537697</internalNodes>
          <leafValues>
            -7.1063828468322754e-01 2.2772277891635895e-01</leafValues></_>
        <_>
          <internalNodes>
            0 -1 26 -623915350 1998137605 2049 286593287 -1719099509
            235923498 537615359 1097853535</internalNodes>
          <leafValues>
            -6.5450084209442139e-01 3.2725003361701965e-01</leafValues></_>
        <_>
          <internalNodes>
            0 -1 6 1221583571 1103270022 4719186 1360093312 1138594750
            -328548117 9920767 -675815177</internalNodes>
          <leafValues>
            -4.5597997307777405e-01 4.6599534153938293e-01</leafValues></_>
        <_>
          <internalNodes>
            0 -1 174 -41164901 -524226558 -1023098824 -3554878
            -402196352 -393822192 345071616 -1060910253</internalNodes>
          <leafValues>
            -5.1994681358337402e-01 3.9739313721656799e-01</leafValues></_>
        <_>
          <internalNodes>
            0 -1 125 -773797648 2004951169 1075069073 1024917505
            1082204842 -884436862 539099835 1260071599</internalNodes>
          <leafValues>
            -5.1263099908828735e-01 4.1859325766563416e-01</leafValues></_>
        <_>
          <internalNodes>
            0 -1 213 -220205030 2080545010 -532657957 1344040990
            1241597964 -636548063 1647372538 -660350165</internalNodes>
          <leafValues>
            -4.6507105231285095e-01 4.6002623438835144e-01</leafValues></_>
        <_>
          <internalNodes>
            0 -1 31 -1035470206 579002898 -738160379 447205906
            1078511628 1276207112 1073996767 -589562561</internalNodes>
          <leafValues>
            -4.8937430977821350e-01 4.2641317844390869e-01</leafValues></_>
        <_>
          <internalNodes>
            0 -1 197 -829758031 -2063542909 -1729983503 -10576896
            651806453 -847990773 -592523024 -117774124</internalNodes>
          <leafValues>
            -4.6887895464897156e-01 4.5409724116325378e-01</leafValues></_></weakClassifiers></_>
    <!-- stage 2 -->
    <_>
      <maxWeakCount>9</maxWeakCount>
      <stageThreshold>-1.5496535301208496e+00</stageThreshold>
      <weakClassifiers>
        <_>
          <internalNodes>
            0 -1 74 -556007781 -685776830 1476575319 -233778622
            -2112634721 -33456126 -939015541 -899167153</internalNodes>
          <leafValues>
            -6.7532253265380859e-01 2.3495827615261078e-01</leafValues></_>
        <_>
          <internalNodes>
            0 -1 140 -11011561 1465090067 271390911 488887323 839772314
            -313819112 671187179 978320379</internalNodes>
          <leafValues>
            -4.6960234642028809e-01 4.7675678133964539e-01</leafValues></_>
        <_>
          <internalNodes>
            0 -1 49 -350238829 797608162 1204773009 -672137120 16224253
            -822149889 1148671155 -1049627625</internalNodes>
          <leafValues>
            -4.0839159488677979e-01 5.1944565773010254e-01</leafValues></_>
        <_>
          <internalNodes>
            0 -1 227 -268439833 -2126259414 -402978095 -785645650
            -1748110901 -2007892145 -975763552 -773851149</internalNodes>
          <leafValues>
            -3.7318244576454163e-01 5.2592748403549194e-01</leafValues></_>
        <_>
          <internalNodes>
            0 -1 127 -805250928 1563492517 79712593 1563631945
            1913692803 -367296288 561066383 -368081653</internalNodes>
          <leafValues>
            -4.5441302657127380e-01 4.3656501173973083e-01</leafValues></_>
        <_>
          <internalNodes>
            0 -1 214 -210243014 1431515159 -2147187693 806563866
            159582728 -1476229040 1652600968 -260183429</internalNodes>
          <leafValues>
            -4.5993277430534363e-01 4.5206981897354126e-01</leafValues></_>
        <_>
          <internalNodes>
            0 -1 27 -486358302 85149851 -317520877 85671939 1149403298
            -2034032512 -1735470613 1329321995</internalNodes>
          <leafValues>
            -4.9921637773513794e-01 4.3547141551971436e-01</leafValues></_>
        <_>
          <internalNodes>
            0 -1 86 -1970626160 -519253888 -1879011307 1031979332
            -2143051624 -1568440184 830489308 -550776351</internalNodes>
          <leafValues>
            -4.7465294599533081e-01 4.4914799928665161e-01</leafValues></_>
        <_>
          <internalNodes>
            0 -1 104 -657464793 1750595090 -804695821 -264088318
            -1207229428 437420033 -1999495026 -366483629</internalNodes>
          <leafValues>
            -4.7755563259124756e-01 4.5159384608268738e-01</leafValues></_></weakClassifiers></_>
    <!-- stage 3 -->
    <_>
      <maxWeakCount>8</maxWeakCount>
      <stageThreshold>-1.3626432418823242e+00</stageThreshold>
      <weakClassifiers>
        <_>
          <internalNodes>
            0 -1 37 -2113671429 -916982693 85145431 1326174467 38726571
            -1885617957 31451135 -805315585</internalNodes>
          <leafValues>
            -6.8405163288116455e-01 1.9655314087867737e-01</leafValues></_>
        <_>
          <internalNodes>
            0 -1 51 -979900973 -815562174 30503153 1460736785 160166139
            -611172216 1094938871 -537402121</internalNodes>
          <leafValues>
            -4.5540365576744080e-01 4.3151393532752991e-01</leafValues></_>
        <_>
          <internalNodes>
            0 -1 79 -657198384 -355942274 -1040005660 -362677541
            -879496000 -1580992463 -268373547 -100665633</internalNodes>
          <leafValues>
            -5.5551463365554810e-01 3.6999946832656860e-01</leafValues></_>
        <_>
          <internalNodes>
            0 -1 178 1959938078 1510437498 806039699 814781911 403460172
            -124868063 -657805057 -902126349</internalNodes>
          <leafValues>
            -4.8783382773399353e-01 3.7806674838066101e-01</leafValues></_>
        <_>
          <internalNodes>
            0 -1 153 -84508839 -34318451 -683417601 1048584017 789171601
            -323790660 -626344456 -56078588</internalNodes>
          <leafValues>
            -4.1963562369346619e-01 4.4114589691162109e-01</leafValues></_>
        <_>
          <internalNodes>
            0 -1 188 -65046697 1763660895 1168437 276288023 -1844901810
            -99401703 38013224 676854623</internalNodes>
          <leafValues>
            -4.7919353842735291e-01 3.9700976014137268e-01</leafValues></_>
        <_>
          <internalNodes>
            0 -1 1 596350338 -961565024 -1217468588 -637911107
            -1744968261 -554516523 1968555427 -3147786</internalNodes>
          <leafValues>
            -4.1408577561378479e-01 4.6673214435577393e-01</leafValues></_>
        <_>
          <internalNodes>
            0 -1 34 -78119093 303284360 147998787 1218074 1510170640
            -939294640 273056027 1415052763</internalNodes>
          <leafValues>
            -4.8052430152893066e-01 4.0894755721092224e-01</leafValues></_></weakClassifiers></_>
    <!-- stage 4 -->
    <_>
      <maxWeakCount>9</maxWeakCount>
      <stageThreshold>-1.5233680009841919e+00</stageThreshold>
      <weakClassifiers>
        <_>
          <internalNodes>
            0 -1 179 -610274473 2098155795 -733814273 923890011
            -90441477 -72430557 -913396993 -77596193</internalNodes>
          <leafValues>
            -6.0817617177963257e-01 4.3014451861381531e-01</leafValues></_>
        <_>
          <internalNodes>
            0 -1 46 1134818003 1541039346 251638771 1409249329
            -1913131107 -100665601 1576473847 -538980142</internalNodes>
          <leafValues>
            -3.8263493776321411e-01 4.8800137639045715e-01</leafValues></_>
        <_>
          <internalNodes>
            0 -1 93 -96743737 -210297141 -1028604193 811770602
            -1974811122 -865119633 1383386846 -130023425</internalNodes>
          <leafValues>
            -3.5443818569183350e-01 5.1081115007400513e-01</leafValues></_>
        <_>
          <internalNodes>
            0 -1 159 -54002214 -527515390 1358975120 -804011051
            -83244624 -863384952 1686724865 -975833229</internalNodes>
          <leafValues>
            -5.2030992507934570e-01 3.3428317308425903e-01</leafValues></_>
        <_>
          <internalNodes>
            0 -1 109 1480635096 1497827393 289996801 251732097
            -1891071094 -1055817342 671296267 2138014267</internalNodes>
          <leafValues>
            -5.1487439870834351e-01 3.5065981745719910e-01</leafValues></_>
        <_>
          <internalNodes>
            0 -1 229 -1069858798 -688750314 -1946093194 1922503059
            -792016562 -637132790 113412168 -95683953</internalNodes>
          <leafValues>
            -4.6299242973327637e-01 3.9690577983856201e-01</leafValues></_>
        <_>
          <internalNodes>
            0 -1 163 -1584384140 1062355211 -1291229667 -1289981611
            177865468 -1886199294 -2073261379 -320812412</internalNodes>
          <leafValues>
            -4.4252574443817139e-01 4.1469791531562805e-01</leafValues></_>
        <_>
          <internalNodes>
            0 -1 220 -184660905 -1222518367 -17221633 -1078799086
            154291534 -293634105 -893467395 -84485137</internalNodes>
          <leafValues>
            -3.6192449927330017e-01 5.2212768793106079e-01</leafValues></_>
        <_>
          <internalNodes>
            0 -1 121 -653234092 1564489049 -1342029735 487084041
            -2147424072 -1106771422 -2013263365 -618501361</internalNodes>
          <leafValues>
            -4.5814782381057739e-01 4.2314186692237854e-01</leafValues></_></weakClassifiers></_>
    <!-- stage 5 -->
    <_>
      <maxWeakCount>9</maxWeakCount>
      <stageThreshold>-1.4293136596679688e+00</stageThreshold>
      <weakClassifiers>
        <_>
          <internalNodes>
            0 -1 177 -1025 -4524033 -10757153 -2433161 -906232833 -8291
            -340009219 -71496</internalNodes>
          <leafValues>
            -6.1504107713699341e-01 4.5853322744369507e-01</leafValues></_>
        <_>
          <internalNodes>
            0 -1 61 1265096691 -215852494 -12863565 -9211024 -2018027777
            -311526011 -822094873 -591150189</internalNodes>
          <leafValues>
            -3.8181534409523010e-01 4.8737451434135437e-01</leafValues></_>
        <_>
          <internalNodes>
            0 -1 157 -707926832 -780338178 -1806641835 -574133667
            -2121011056 -658838158 1835812282 -647049378</internalNodes>
          <leafValues>
            -4.1236227750778198e-01 3.9912661910057068e-01</leafValues></_>
        <_>
          <internalNodes>
            0 -1 129 -22029009 2082995548 -50401548 -1301127678
            -1761982852 -327233932 -50413834 -26021932</internalNodes>
          <leafValues>
            -4.0049135684967041e-01 4.2287898063659668e-01</leafValues></_>
        <_>
          <internalNodes>
            0 -1 142 178921307 -1615306892 869357875 -1684775693
            -1420678227 -288367824 -1629685697 -903209488</internalNodes>
          <leafValues>
            -4.9329832196235657e-01 3.3535605669021606e-01</leafValues></_>
        <_>
          <internalNodes>
            0 -1 183 -33792911 -13378219 -69633 -50573512 -1400221972
            -151585281 -1493647644 -357002012</internalNodes>
          <leafValues>
            -3.8456296920776367e-01 4.5188903808593750e-01</leafValues></_>
        <_>
          <internalNodes>
            0 -1 219 -1417679091 50265966 -889197967 -219218252
            -577053589 234878823 -1056975369 -67108875</internalNodes>
          <leafValues>
            -3.4041771292686462e-01 4.9140328168869019e-01</leafValues></_>
        <_>
          <internalNodes>
            0 -1 72 651755315 -1179879019 291726847 -8122476 -1970499909
            -62942325 227316651 164580572</internalNodes>
          <leafValues>
            -4.7511860728263855e-01 3.5762318968772888e-01</leafValues></_>
        <_>
          <internalNodes>
            0 -1 139 -92443073 2038414715 -20971882 -1191575813
            -998355448 -813695241 -571476242 -1660946689</internalNodes>
          <leafValues>
            -3.9380705356597900e-01 4.3351149559020996e-01</leafValues></_></weakClassifiers></_>
    <!-- stage 6 -->
    <_>
      <maxWeakCount>8</maxWeakCount>
      <stageThreshold>-1.4084838628768921e+00</stageThreshold>
      <weakClassifiers>
        <_>
          <internalNodes>
            0 -1 43 -1 -27262977 -4260226 -253296898 -76546209
            -143130761 -1 -151519233</internalNodes>
          <leafValues>
            -6.6923457384109497e-01 2.1009133756160736e-01</leafValues></_>
        <_>
          <internalNodes>
            0 -1 166 -35057 864024447 -159392001 855638015 2130671445
            1971322687 -4457986 1891629951</internalNodes>
          <leafValues>
            -5.5602985620498657e-01 3.1473693251609802e-01</leafValues></_>
        <_>
          <internalNodes>
            0 -1 35 -142610433 -202047497 -625716 -253036438 -8978560
            -589496881 -570426044 -196807730</internalNodes>
          <leafValues>
            -4.6921500563621521e-01 3.6100861430168152e-01</leafValues></_>
        <_>
          <internalNodes>
            0 -1 170 2122280975 1409220479 -220463362 2055141375
            -1191185844 -20971905 -1157628342 -88276993</internalNodes>
          <leafValues>
            -4.2935204505920410e-01 4.1870874166488647e-01</leafValues></_>
        <_>
          <internalNodes>
            0 -1 41 -486543377 1749499774 -50858258 -139726873
            1105164051 23549479 1642881142 1440217063</internalNodes>
          <leafValues>
            -4.2364794015884399e-01 3.9644461870193481e-01</leafValues></_>
        <_>
          <internalNodes>
            0 -1 88 -1964863689 -8602147 -18879489 -1083246209 183896569
            -287593729 767238143 -1935145580</internalNodes>
          <leafValues>
            -4.5865741372108459e-01 3.4806728363037109e-01</leafValues></_>
        <_>
          <internalNodes>
            0 -1 207 -285212737 -497566217 -170496 -992544098 493344741
            1174337143 -167778400 -521748505</internalNodes>
          <leafValues>
            -4.4380432367324829e-01 3.5507658123970032e-01</leafValues></_>
        <_>
          <internalNodes>
            0 -1 239 -1628109817 -694177953 -1151342897 -488177793
            1744830046 -17368213 -543371574 -654377222</internalNodes>
          <leafValues>
            -3.8460958003997803e-01 4.0450894832611084e-01</leafValues></_></weakClassifiers></_>
    <!-- stage 7 -->
    <_>
      <maxWeakCount>9</maxWeakCount>
      <stageThreshold>-1.2066277265548706e+00</stageThreshold>
      <weakClassifiers>
        <_>
          <internalNodes>
            0 -1 17 -1 -524801 -4247634 -1048594 -218103809 -134881281
            -268435505 -169345201</internalNodes>
          <leafValues>
            -6.3760304450988770e-01 2.0172084867954254e-01</leafValues></_>
        <_>
          <internalNodes>
            0 -1 155 803094357 -1073905665 -1149255681 -1073988097
            -16387 -32833 -81921 -1363395408</internalNodes>
          <leafValues>
            -5.2636057138442993e-01 3.3657866716384888e-01</leafValues></_>
        <_>
          <internalNodes>
            0 -1 3 -1360140365 583705314 -14350 -268501262 1845338111
            -268436481 2013230581 -2656907</internalNodes>
          <leafValues>
            -4.7020083665847778e-01 3.5437509417533875e-01</leafValues></_>
        <_>
          <internalNodes>
            0 -1 223 -545260265 1425759611 1249017439 41089023
            1736393761 1995929143 622181435 845283131</internalNodes>
          <leafValues>
            -4.9679473042488098e-01 3.1758764386177063e-01</leafValues></_>
        <_>
          <internalNodes>
            0 -1 175 -1887642128 -63111692 -503316619 -205644
            -1384120323 -1396835843 134117628 -844624896</internalNodes>
          <leafValues>
            -4.9151161313056946e-01 3.2481545209884644e-01</leafValues></_>
        <_>
          <internalNodes>
            0 -1 184 2023509117 -9226345 -380699145 -131073 -141259521
            -18874371 -90112513 -1171718242</internalNodes>
          <leafValues>
            -3.3031183481216431e-01 4.7785323858261108e-01</leafValues></_>
        <_>
          <internalNodes>
            0 -1 40 -977293521 216936046 -2015636301 -268803348
            104143699 38091765 1197831525 1156891990</internalNodes>
          <leafValues>
            -5.5087924003601074e-01 2.9389026761054993e-01</leafValues></_>
        <_>
          <internalNodes>
            0 -1 171 -1359084459 -4195585 -186647683 -1082197449
            -304251019 -98369 -16963 -1074526192</internalNodes>
          <leafValues>
            -4.7928771376609802e-01 3.0302795767784119e-01</leafValues></_>
        <_>
          <internalNodes>
            0 -1 193 -557318253 -1500596235 -594030606 -1354827265
            1322775029 -813367457 905265920 -1001337105</internalNodes>
          <leafValues>
            -4.5317149162292480e-01 3.3835518360137939e-01</leafValues></_></weakClassifiers></_>
    <!-- stage 8 -->
    <_>
      <maxWeakCount>10</maxWeakCount>
      <stageThreshold>-1.8730388879776001e+00</stageThreshold>
      <weakClassifiers>
        <_>
          <internalNodes>
            0 -1 12 -267345 -269490193 -227302750 -202654262 -604377777
            -179874229 -139729977 -134483969</internalNodes>
          <leafValues>
            -6.1990809440612793e-01 1.4873266220092773e-01</leafValues></_>
        <_>
          <internalNodes>
            0 -1 161 -65539 -8863747 -17104897 -81923 -1091637268
            -237697 -67109636 -84235916</internalNodes>
          <leafValues>
            -3.8008612394332886e-01 4.1772797703742981e-01</leafValues></_>
        <_>
          <internalNodes>
            0 -1 130 -662756547 2139041597 1851654143 -1119936717
            -570578505 -67126339 205303806 704650752</internalNodes>
          <leafValues>
            -4.5252943038940430e-01 3.3888718485832214e-01</leafValues></_>
        <_>
          <internalNodes>
            0 -1 60 -69735633 -464524349 -229162304 -486542850
            -1030527730 6508867 -453220857 -134226945</internalNodes>
          <leafValues>
            -3.7861034274101257e-01 3.7194740772247314e-01</leafValues></_>
        <_>
          <internalNodes>
            0 -1 237 -5243641 -500720081 -151263840 -222921749
            2139051844 1144324055 -151001504 -151521553</internalNodes>
          <leafValues>
            -3.5205221176147461e-01 3.9818808436393738e-01</leafValues></_>
        <_>
          <internalNodes>
            0 -1 105 -1405963147 -1712718559 -537661453 -38283403
            -1380403749 -1092104204 -1493958948 -4209179</internalNodes>
          <leafValues>
            -3.3544498682022095e-01 4.5213213562965393e-01</leafValues></_>
        <_>
          <internalNodes>
            0 -1 117 -797902928 -712709700 -391875755 -252213763
            -46864914 -1613706911 -59318403 -1721923682</internalNodes>
          <leafValues>
            -4.5414641499519348e-01 3.3885866403579712e-01</leafValues></_>
        <_>
          <internalNodes>
            0 -1 63 -9457749 -2055131254 -1100027232 -168302936
            -27279665 13465416 307623414 -673187893</internalNodes>
          <leafValues>
            -3.2085725665092468e-01 4.3768686056137085e-01</leafValues></_>
        <_>
          <internalNodes>
            0 -1 44 2062457058 1928003468 -1787374856 -327686
            -1735811348 -790836283 950888652 -784023818</internalNodes>
          <leafValues>
            -4.6601304411888123e-01 3.0583688616752625e-01</leafValues></_>
        <_>
          <internalNodes>
            0 -1 100 1413530608 301207900 -420162177 999765693
            -142822914 -646570065 -1251500225 228926419</internalNodes>
          <leafValues>
            -4.6966266632080078e-01 2.9853814840316772e-01</leafValues></_></weakClassifiers></_>
    <!-- stage 9 -->
    <_>
      <maxWeakCount>12</maxWeakCount>
      <stageThreshold>-1.5468482971191406e+00</stageThreshold>
      <weakClassifiers>
        <_>
          <internalNodes>
            0 -1 18 -35918161 -309346321 -62919514 -151003158 -106440881
            1464064643 -138423934 -135275601</internalNodes>
          <leafValues>
            -6.3482671976089478e-01 6.2374245375394821e-02</leafValues></_>
        <_>
          <internalNodes>
            0 -1 50 -1976588289 -52666437 1603662715 1474655607
            257101823 -269521154 532643775 1173685622</internalNodes>
          <leafValues>
            -4.7177910804748535e-01 2.6091203093528748e-01</leafValues></_>
        <_>
          <internalNodes>
            0 -1 195 -536870989 -390137890 -738249743 -136849491
            -1216873989 -873469961 1979684817 -773857289</internalNodes>
          <leafValues>
            -3.2345712184906006e-01 4.2122766375541687e-01</leafValues></_>
        <_>
          <internalNodes>
            0 -1 210 -126352171 -33980707 -625570568 -235174581
            -1531121958 -332600198 -126183489 -71639313</internalNodes>
          <leafValues>
            -2.5605985522270203e-01 4.9783170223236084e-01</leafValues></_>
        <_>
          <internalNodes>
            0 -1 82 -17829914 -1026633561 -228623766 -1595753366
            -55130873 1566779659 -173086554 -218890666</internalNodes>
          <leafValues>
            -4.1370925307273865e-01 3.0841201543807983e-01</leafValues></_>
        <_>
          <internalNodes>
            0 -1 28 -13633553 1848283106 -1481792832 -341390104
            1474295807 250542391 2008102039 -403181337</internalNodes>
          <leafValues>
            -3.6461719870567322e-01 3.5981705784797668e-01</leafValues></_>
        <_>
          <internalNodes>
            0 -1 216 -839909473 -1005801601 2109187316 -640487749
            110331888 1075308097 -767725166 -707399853</internalNodes>
          <leafValues>
            -3.8545796275138855e-01 3.4348666667938232e-01</leafValues></_>
        <_>
          <internalNodes>
            0 -1 244 -202382450 -496636188 1793573606 -488112390
            -68168434 1181177158 -1502087506 -203428117</internalNodes>
          <leafValues>
            -3.0921158194541931e-01 4.1664701700210571e-01</leafValues></_>
        <_>
          <internalNodes>
            0 -1 78 1357950965 -744710307 754395407 802664366 -409535059
            -36016133 188095275 -1074942145</internalNodes>
          <leafValues>
            -3.2300132513046265e-01 4.0088877081871033e-01</leafValues></_>
        <_>
          <internalNodes>
            0 -1 39 -470310993 -282148958 -1292486558 -618152020
            -272629898 732948350 -520101658 -134758488</internalNodes>
          <leafValues>
            -2.8959617018699646e-01 4.2743793129920959e-01</leafValues></_>
        <_>
          <internalNodes>
            0 -1 162 -1393656067 -836227 -536953921 -98381 -1083394051
            -1344798851 -1208156163 -1075159556</internalNodes>
          <leafValues>
            -2.7314847707748413e-01 4.6507203578948975e-01</leafValues></_>
        <_>
          <internalNodes>
            0 -1 135 2136078844 -673610827 1947243259 -547380414
            219266990 208466406 580727355 1589584569</internalNodes>
          <leafValues>
            -3.9031636714935303e-01 3.3442693948745728e-01</leafValues></_></weakClassifiers></_>
    <!-- stage 10 -->
    <_>
      <maxWeakCount>12</maxWeakCount>
      <stageThreshold>-1.3032031059265137e+00</stageThreshold>
      <weakClassifiers>
        <_>
          <internalNodes>
            0 -1 137 -1623681543 -537054983 -1617046049 -34782763
            -67527749 -67335233 -1411859457 -35911468</internalNodes>
          <leafValues>
            -5.9092313051223755e-01 1.1862643063068390e-01</leafValues></_>
        <_>
          <internalNodes>
            0 -1 30 -890245285 16772795 496981317 -2051022681 1079474807
            1088679934 1080767797 1173870039</internalNodes>
          <leafValues>
            -5.2689474821090698e-01 2.3169484734535217e-01</leafValues></_>
        <_>
          <internalNodes>
            0 -1 234 -71303902 -1485954433 1658786338 -255877453
            1740810582 1164565612 -158403036 -218104145</internalNodes>
          <leafValues>
            -4.1292968392372131e-01 2.8380209207534790e-01</leafValues></_>
        <_>
          <internalNodes>
            0 -1 132 577645333 -570654727 -147980801 -214017 -286523393
            -478343 -3688196 -1360956227</internalNodes>
          <leafValues>
            -3.6884394288063049e-01 3.2531729340553284e-01</leafValues></_>
        <_>
          <internalNodes>
            0 -1 198 -1346453775 -1146454049 -13 -134217863 -1378422785
            -291635273 -839186779 -1946270524</internalNodes>
          <leafValues>
            -3.2864308357238770e-01 3.7422752380371094e-01</leafValues></_>
        <_>
          <internalNodes>
            0 -1 18 -118756689 -305205522 1056893088 -495124758 -530609
            1455546319 -138441374 -135532545</internalNodes>
          <leafValues>
            -3.2738989591598511e-01 3.8392111659049988e-01</leafValues></_>
        <_>
          <internalNodes>
            0 -1 222 -738198465 1409253239 574300210 544437243 -73444536
            2110386509 866431640 1884815359</internalNodes>
          <leafValues>
            -4.1181725263595581e-01 3.0139568448066711e-01</leafValues></_>
        <_>
          <internalNodes>
            0 -1 66 -537657769 -178301333 -367123580 -1300043038
            -163814572 1752395375 1114045204 -535340537</internalNodes>
          <leafValues>
            -4.2233440279960632e-01 3.0023500323295593e-01</leafValues></_>
        <_>
          <internalNodes>
            0 -1 1 -1547699405 -437276952 -269486178 -4894 -65 -37749289
            -673204765 -6291489</internalNodes>
          <leafValues>
            -2.8076374530792236e-01 4.8903676867485046e-01</leafValues></_>
        <_>
          <internalNodes>
            0 -1 70 174239123 1593354450 2072999903 -541485795 189787899
            -6558477 137879037 205788565</internalNodes>
          <leafValues>
            -5.1236873865127563e-01 2.4199214577674866e-01</leafValues></_>
        <_>
          <internalNodes>
            0 -1 238 -71827542 -1343258716 -1225081928 -134236233
            -813968241 82509743 -134221354 -705691953</internalNodes>
          <leafValues>
            -2.7814805507659912e-01 4.2167836427688599e-01</leafValues></_>
        <_>
          <internalNodes>
            0 -1 204 -588314556 2075916031 -1407188995 1883092935
            -21332150 -25515723 -910561842 -285215823</internalNodes>
          <leafValues>
            -3.6685821413993835e-01 3.2437080144882202e-01</leafValues></_></weakClassifiers></_>
    <!-- stage 11 -->
    <_>
      <maxWeakCount>14</maxWeakCount>
      <stageThreshold>-1.3070595264434814e+00</stageThreshold>
      <weakClassifiers>
        <_>
          <internalNodes>
            0 -1 196 -552600591 -320294414 -704784943 -4194820
            -1414546433 -1884320769 500135121 -840972044</internalNodes>
          <leafValues>
            -6.7203217744827271e-01 -7.5801752507686615e-02</leafValues></_>
        <_>
          <internalNodes>
            0 -1 203 -597946232 -641001000 -714133171 -170041919
            -68249976 -1941435218 -17001474 -71632182</internalNodes>
          <leafValues>
            -3.5424152016639709e-01 3.3887830376625061e-01</leafValues></_>
        <_>
          <internalNodes>
            0 -1 113 -1459575888 -1557604912 -6046817 -43534635
            700119544 -298599760 -2119151107 -1074012752</internalNodes>
          <leafValues>
            -3.5646238923072815e-01 3.1771942973136902e-01</leafValues></_>
        <_>
          <internalNodes>
            0 -1 59 -276824273 -357837521 -222102304 -520629082
            -469772729 1162174071 -184557369 -134222905</internalNodes>
          <leafValues>
            -3.3956810832023621e-01 3.4150055050849915e-01</leafValues></_>
        <_>
          <internalNodes>
            0 -1 52 -470401537 -12561 -1359008241 -1376834993 -449970177
            -70813851 -1746063569 -268475777</internalNodes>
          <leafValues>
            -2.3296181857585907e-01 4.6128919720649719e-01</leafValues></_>
        <_>
          <internalNodes>
            0 -1 215 -2257 343928071 951844455 284426151 364377604
            1633810189 -1231374584 1953955615</internalNodes>
          <leafValues>
            -4.8588630557060242e-01 2.2002099454402924e-01</leafValues></_>
        <_>
          <internalNodes>
            0 -1 102 -696857857 -67561745 1790328537 1352850043
            2130201676 -128819613 -17904418 -79634690</internalNodes>
          <leafValues>
            -3.0728149414062500e-01 3.6424875259399414e-01</leafValues></_>
        <_>
          <internalNodes>
            0 -1 55 -554696797 -945197173 -1476417886 -201339222
            -841547778 1327890246 -1262632575 -137904457</internalNodes>
          <leafValues>
            -2.7470439672470093e-01 3.9023885130882263e-01</leafValues></_>
        <_>
          <internalNodes>
            0 -1 165 -1407445739 -79954569 2144198655 -2271629
            -541136011 -268444503 -41227555 -1399032736</internalNodes>
          <leafValues>
            -4.1743725538253784e-01 2.7086800336837769e-01</leafValues></_>
        <_>
          <internalNodes>
            0 -1 241 -150331264 -87032448 -1865174894 1389859258
            -544937976 -1037393856 1822422986 1943796443</internalNodes>
          <leafValues>
            -3.7074783444404602e-01 3.0352020263671875e-01</leafValues></_>
        <_>
          <internalNodes>
            0 -1 202 -18940503 -234514677 1457347328 -982131013
            -1933794581 138213859 -778747232 -1783628357</internalNodes>
          <leafValues>
            -3.5433197021484375e-01 3.3084195852279663e-01</leafValues></_>
        <_>
          <internalNodes>
            0 -1 185 -1197968131 -13535063 -150867276 -38636137
            -1222745804 -102395465 -1315390792 -1163252892</internalNodes>
          <leafValues>
            -3.4588459134101868e-01 3.4067559242248535e-01</leafValues></_>
        <_>
          <internalNodes>
            0 -1 172 1083233696 -896162860 -689909515 -1256852950
            1473533577 876391406 686237562 705711619</internalNodes>
          <leafValues>
            -4.9376100301742554e-01 2.2194951772689819e-01</leafValues></_>
        <_>
          <internalNodes>
            0 -1 68 -21370073 -12632203 -228157842 -218664798
            -1352964849 1432256262 928441063 -202391573</internalNodes>
          <leafValues>
            -2.9088759422302246e-01 3.9616343379020691e-01</leafValues></_></weakClassifiers></_>
    <!-- stage 12 -->
    <_>
      <maxWeakCount>14</maxWeakCount>
      <stageThreshold>-1.3691693544387817e+00</stageThreshold>
      <weakClassifiers>
        <_>
          <internalNodes>
            0 -1 97 -204357633 -141895 -1896806357 -275182801 -1335297
            -3146241 -1342239957 -1342455873</internalNodes>
          <leafValues>
            -5.9407693147659302e-01 4.1609510779380798e-02</leafValues></_>
        <_>
          <internalNodes>
            0 -1 153 515660117 -495235 -121833477 -139315937 -1405548359
            -4493315 -1896178244 -1095218772</internalNodes>
          <leafValues>
            -4.1272935271263123e-01 2.3601098358631134e-01</leafValues></_>
        <_>
          <internalNodes>
            0 -1 230 1920719426 -42475521 -1157912038 844233415
            -218649974 -134291462 -103081282 -352322838</internalNodes>
          <leafValues>
            -3.2914036512374878e-01 3.3275669813156128e-01</leafValues></_>
        <_>
          <internalNodes>
            0 -1 87 -1918115855 -13571344 -546324525 -8398891
            -1353334849 -285220871 -1109985285 -536919723</internalNodes>
          <leafValues>
            -2.2996462881565094e-01 4.2778119444847107e-01</leafValues></_>
        <_>
          <internalNodes>
            0 -1 236 -34865241 -359960919 -150999070 -84545831
            -1896024097 41353061 -1229458031 -201327105</internalNodes>
          <leafValues>
            -2.5166592001914978e-01 3.9622315764427185e-01</leafValues></_>
        <_>
          <internalNodes>
            0 -1 85 -160368546 -11176580 -1706901898 155363 -196878272
            -1890096380 -462359666 -799805686</internalNodes>
          <leafValues>
            -4.1306030750274658e-01 2.6503515243530273e-01</leafValues></_>
        <_>
          <internalNodes>
            0 -1 10 -404492598 207733967 -230043030 1406133842
            -1438655569 1275591821 -148120894 1911549643</internalNodes>
          <leafValues>
            -3.0416700243949890e-01 3.7386184930801392e-01</leafValues></_>
        <_>
          <internalNodes>
            0 -1 186 -840557483 -64641 324460509 2136751743 2122252765
            -3451169 -1399022596 940715837</internalNodes>
          <leafValues>
            -4.3236374855041504e-01 2.3930554091930389e-01</leafValues></_>
        <_>
          <internalNodes>
            0 -1 116 -729502574 423149345 -1145815111 -139842934
            884797085 2060841855 -1889563512 2143159466</internalNodes>
          <leafValues>
            -4.0451583266258240e-01 2.5566700100898743e-01</leafValues></_>
        <_>
          <internalNodes>
            0 -1 224 -170425547 86695283 -981034485 -964362379
            1432304145 1429100534 -10003502 1632892899</internalNodes>
          <leafValues>
            -3.9807474613189697e-01 2.6027682423591614e-01</leafValues></_>
        <_>
          <internalNodes>
            0 -1 7 -288626773 -1431338804 651647250 -1783758750 7339999
            44431855 1969575680 2011394807</internalNodes>
          <leafValues>
            -4.2551210522651672e-01 2.4069263041019440e-01</leafValues></_>
        <_>
          <internalNodes>
            0 -1 80 -64715568 1964583993 1790353143 671032315 -190390389
            1937424891 2125039789 754648243</internalNodes>
          <leafValues>
            -4.1232132911682129e-01 2.4827499687671661e-01</leafValues></_>
        <_>
          <internalNodes>
            0 -1 20 -159645713 -551166139 -1543833850 -184820512
            -994324659 1680269293 -138674633 -8289</internalNodes>
          <leafValues>
            -2.5758597254753113e-01 4.2497786879539490e-01</leafValues></_>
        <_>
          <internalNodes>
            0 -1 101 -798704940 -22754120 635812819 -1069252484
            -210310092 -134356831 -1271597262 -381572947</internalNodes>
          <leafValues>
            -4.6926647424697876e-01 2.4294354021549225e-01</leafValues></_></weakClassifiers></_>
    <!-- stage 13 -->
    <_>
      <maxWeakCount>13</maxWeakCount>
      <stageThreshold>-1.4525284767150879e+00</stageThreshold>
      <weakClassifiers>
        <_>
          <internalNodes>
            0 -1 255 -8390161 -67373057 -493618622 -757596185 -83896497
            -339940519 -1311121 -203423761</internalNodes>
          <leafValues>
            -5.4647886753082275e-01 2.1538461744785309e-01</leafValues></_>
        <_>
          <internalNodes>
            0 -1 42 -225 1349320428 1356306674 -184822758 -176737785
            811987831 -142120152 1978138495</internalNodes>
          <leafValues>
            -3.8583463430404663e-01 2.5656405091285706e-01</leafValues></_>
        <_>
          <internalNodes>
            0 -1 138 -209022511 -4993822 -1736114945 2111160253
            -553845061 -86193940 613728255 -66832172</internalNodes>
          <leafValues>
            -2.4221818149089813e-01 4.4308394193649292e-01</leafValues></_>
        <_>
          <internalNodes>
            0 -1 181 -1816998128 -1086392904 -142999631 -140591180
            -1581850914 -1433421111 -1711551056 -336669488</internalNodes>
          <leafValues>
            -3.5378551483154297e-01 2.8230613470077515e-01</leafValues></_>
        <_>
          <internalNodes>
            0 -1 231 -201603665 -842268764 -205555549 -236192853
            -1670390033 -1949368482 1373099175 -738206209</internalNodes>
          <leafValues>
            -2.2197134792804718e-01 4.4469958543777466e-01</leafValues></_>
        <_>
          <internalNodes>
            0 -1 76 -223423280 -139444237 -1631942086 1043114679
            -1419051081 -10502149 150801821 -10802948</internalNodes>
          <leafValues>
            -3.1461745500564575e-01 3.3296936750411987e-01</leafValues></_>
        <_>
          <internalNodes>
            0 -1 65 -68163934 -907022423 1625335968 -218386770
            1197992975 4159446 2004326118 -135273265</internalNodes>
          <leafValues>
            -3.1328216195106506e-01 3.2629647850990295e-01</leafValues></_>
        <_>
          <internalNodes>
            0 -1 99 -867116332 1157754244 1676991445 1940367103
            1240770229 -414387209 -824849615 770013195</internalNodes>
          <leafValues>
            -4.3108448386192322e-01 2.2386214137077332e-01</leafValues></_>
        <_>
          <internalNodes>
            0 -1 92 -151916826 -30442809 -83958210 -219287934 -539734452
            -9019569 -1092620353 -204218369</internalNodes>
          <leafValues>
            -2.7605617046356201e-01 3.7180525064468384e-01</leafValues></_>
        <_>
          <internalNodes>
            0 -1 245 -411049406 1767277080 539712524 45074447 2053849666
            1701286450 -1743809834 1113837258</internalNodes>
          <leafValues>
            -4.1383433341979980e-01 2.6358640193939209e-01</leafValues></_>
        <_>
          <internalNodes>
            0 -1 252 -1075806867 -572697243 328282786 -243288071
            -1933976469 1465637006 -643125841 1069341679</internalNodes>
          <leafValues>
            -3.3564624190330505e-01 3.2611751556396484e-01</leafValues></_>
        <_>
          <internalNodes>
            0 -1 191 -1389360835 -1398451245 -598037635 -124642857
            1839340624 -887111587 -554067467 -1163379467</internalNodes>
          <leafValues>
            -4.0500104427337646e-01 2.5848075747489929e-01</leafValues></_>
        <_>
          <internalNodes>
            0 -1 126 1392672942 755025707 -1227783422 -1112738386
            2109015524 343753203 -42374516 344346566</internalNodes>
          <leafValues>
            -5.0716793537139893e-01 1.9728380441665649e-01</leafValues></_></weakClassifiers></_>
    <!-- stage 14 -->
    <_>
      <maxWeakCount>14</maxWeakCount>
      <stageThreshold>-1.3868619203567505e+00</stageThreshold>
      <weakClassifiers>
        <_>
          <internalNodes>
            0 -1 103 -4113 -577077 1983578099 -272449 -56033715
            1402932863 -67634178 -66561</internalNodes>
          <leafValues>
            -5.5125612020492554e-01 1.4789688587188721e-01</leafValues></_>
        <_>
          <internalNodes>
            0 -1 167 1879108510 2102720429 -1197761285 -35018073
            1085541805 -537004801 926353291 1067910563</internalNodes>
          <leafValues>
            -4.3555295467376709e-01 2.1531015634536743e-01</leafValues></_>
        <_>
          <internalNodes>
            0 -1 54 -353978449 -671438912 -281052169 -538085484
            248687359 196275919 30619067 1170034901</internalNodes>
          <leafValues>
            -3.9249765872955322e-01 2.4817949533462524e-01</leafValues></_>
        <_>
          <internalNodes>
            0 -1 151 -306123560 -344427752 -738391041 -37850404 -992004
            -1074069569 -70615139 -1374021359</internalNodes>
          <leafValues>
            -4.2380481958389282e-01 2.3224474489688873e-01</leafValues></_>
        <_>
          <internalNodes>
            0 -1 206 -529569 2003450803 853737151 276823863 -8397288
            2139094907 813578473 -260309009</internalNodes>
          <leafValues>
            -3.1523877382278442e-01 3.2607308030128479e-01</leafValues></_>
        <_>
          <internalNodes>
            0 -1 225 -72089601 -314639685 -1342339340 -358685713
            1072681979 1203500743 1279783312 -980943194</internalNodes>
          <leafValues>
            -2.6959750056266785e-01 3.7652409076690674e-01</leafValues></_>
        <_>
          <internalNodes>
            0 -1 0 -1746870803 -303719163 -1009432 -109902368 262860169
            -963650289 -1476738065 1073725439</internalNodes>
          <leafValues>
            -2.5511917471885681e-01 3.7774002552032471e-01</leafValues></_>
        <_>
          <internalNodes>
            0 -1 169 -1398794892 -135130924 -1043605643 -10588844
            -1476247620 -618632585 -1145066499 -1346631532</internalNodes>
          <leafValues>
            -3.4492796659469604e-01 2.9150620102882385e-01</leafValues></_>
        <_>
          <internalNodes>
            0 -1 73 -352846462 -856965333 2004858978 -134759362
            -1484788026 74366958 -671092491 -675555891</internalNodes>
          <leafValues>
            -3.0341917276382446e-01 3.3536013960838318e-01</leafValues></_>
        <_>
          <internalNodes>
            0 -1 4 -143211802 -1281769326 -2045884690 327260469
            -23465521 -55014619 1687376590 1714920078</internalNodes>
          <leafValues>
            -4.4973662495613098e-01 2.2842268645763397e-01</leafValues></_>
        <_>
          <internalNodes>
            0 -1 246 -338694494 649028824 682545186 -1561341589
            -542248896 1107353857 -406459657 -142608401</internalNodes>
          <leafValues>
            -3.7407758831977844e-01 2.6873606443405151e-01</leafValues></_>
        <_>
          <internalNodes>
            0 -1 96 -1594970588 -1073956977 -34097285 -1532585651
            -1907880149 -148521 -369291400 112004452</internalNodes>
          <leafValues>
            -5.6298428773880005e-01 1.7307418584823608e-01</leafValues></_>
        <_>
          <internalNodes>
            0 -1 95 -1213539073 -1055328 -1091348815 -176720491
            790888169 -1616381957 -1096091143 -269127</internalNodes>
          <leafValues>
            -2.0931105315685272e-01 4.7494700551033020e-01</leafValues></_>
        <_>
          <internalNodes>
            0 -1 217 -1077949148 225104816 -2139096926 -168394208
            328400554 1135211307 1691296465 -169627471</internalNodes>
          <leafValues>
            -3.8706487417221069e-01 2.5993207097053528e-01</leafValues></_></weakClassifiers></_>
    <!-- stage 15 -->
    <_>
      <maxWeakCount>14</maxWeakCount>
      <stageThreshold>-1.6132104396820068e+00</stageThreshold>
      <weakClassifiers>
        <_>
          <internalNodes>
            0 -1 212 -54601475 -6431475 -40117251 -40116297 -1125591874
            -4299925 -1627866113 -21303365</internalNodes>
          <leafValues>
            -5.6541490554809570e-01 7.4610248208045959e-02</leafValues></_>
        <_>
          <internalNodes>
            0 -1 33 -697895086 -1334641090 -834338922 -990009102
            -263078380 -261490115 -9056354 -169872673</internalNodes>
          <leafValues>
            -4.8647680878639221e-01 1.5711191296577454e-01</leafValues></_>
        <_>
          <internalNodes>
            0 -1 106 -637600268 -136855947 -38027846 -48580802
            -1409351691 -33570825 1572806056 -40198145</internalNodes>
          <leafValues>
            -2.9076731204986572e-01 3.2084518671035767e-01</leafValues></_>
        <_>
          <internalNodes>
            0 -1 45 1168520627 -609692746 436206579 -41979744 -839139601
            -528905 213906367 -840042587</internalNodes>
          <leafValues>
            -2.6846873760223389e-01 3.3095636963844299e-01</leafValues></_>
        <_>
          <internalNodes>
            0 -1 176 136592753 -1634698816 1570678773 -3478636
            -1376781663 -1077036377 -1048779535 -1380136044</internalNodes>
          <leafValues>
            -3.6242586374282837e-01 2.6821511983871460e-01</leafValues></_>
        <_>
          <internalNodes>
            0 -1 14 -134485114 -504516849 385278114 -1276149918
            -808673590 1128593223 -420227673 -134218833</internalNodes>
          <leafValues>
            -2.6341697573661804e-01 3.7478762865066528e-01</leafValues></_>
        <_>
          <internalNodes>
            0 -1 94 -26557426 -47974581 -165772686 -231706708 -777450940
            2103904337 -1141217282 -499918985</internalNodes>
          <leafValues>
            -3.4792831540107727e-01 2.7848407626152039e-01</leafValues></_>
        <_>
          <internalNodes>
            0 -1 251 -40829110 -874789973 -83420832 1357928900
            -2071270582 -982992504 -1073826878 1407973784</internalNodes>
          <leafValues>
            -3.5511898994445801e-01 2.7149337530136108e-01</leafValues></_>
        <_>
          <internalNodes>
            0 -1 173 1317008891 -272508434 -555093388 -370737250
            -567433478 -2007051788 -589839152 -936318302</internalNodes>
          <leafValues>
            -3.5165116190910339e-01 2.6408317685127258e-01</leafValues></_>
        <_>
          <internalNodes>
            0 -1 108 1467280632 86281205 -1339788846 129827555
            -678514788 -1776687 1523681259 1036984619</internalNodes>
          <leafValues>
            -4.4458654522895813e-01 2.0848733186721802e-01</leafValues></_>
        <_>
          <internalNodes>
            0 -1 242 -624353152 -72844984 528544498 1379661525
            -804861120 1247395900 -214256421 1416033770</internalNodes>
          <leafValues>
            -4.1162678599357605e-01 2.4494871497154236e-01</leafValues></_>
        <_>
          <internalNodes>
            0 -1 115 543359002 -683559700 1976269906 1521801390
            1601984010 -93477707 1168287586 -247358238</internalNodes>
          <leafValues>
            -4.4175386428833008e-01 2.1600081026554108e-01</leafValues></_>
        <_>
          <internalNodes>
            0 -1 123 -1431161051 -1266689 -71493217 -249980 -1091574019
            -89393873 -50467164 -1669048956</internalNodes>
          <leafValues>
            -4.2115125060081482e-01 2.3824658989906311e-01</leafValues></_>
        <_>
          <internalNodes>
            0 -1 29 -1057577696 -978181500 691095620 1472677156
            -1870337312 -2132547021 1077975798 130761638</internalNodes>
          <leafValues>
            -4.4487845897674561e-01 2.0757630467414856e-01</leafValues></_></weakClassifiers></_>
    <!-- stage 16 -->
    <_>
      <maxWeakCount>15</maxWeakCount>
      <stageThreshold>-1.4436562061309814e+00</stageThreshold>
      <weakClassifiers>
        <_>
          <internalNodes>
            0 -1 232 -8392993 -8388673 -2110783875 1926610911 -13364
            -8946178 -1193431330 -220987393</internalNodes>
          <leafValues>
            -5.8141809701919556e-01 -1.4569536782801151e-02</leafValues></_>
        <_>
          <internalNodes>
            0 -1 122 -21355441 -1083829411 -159399178 1920134204
            1639082524 1969192495 -20517154 -231543938</internalNodes>
          <leafValues>
            -3.9281797409057617e-01 2.0237146317958832e-01</leafValues></_>
        <_>
          <internalNodes>
            0 -1 226 -51385725 -1360099011 -1781161152 -944181769
            1238853631 84585925 -1228589678 1172820859</internalNodes>
          <leafValues>
            -3.8229757547378540e-01 2.2411990165710449e-01</leafValues></_>
        <_>
          <internalNodes>
            0 -1 168 1098957952 2098376157 647193789 -771904229
            1161036221 -537789763 435110843 863307567</internalNodes>
          <leafValues>
            -4.4898113608360291e-01 1.9442063570022583e-01</leafValues></_>
        <_>
          <internalNodes>
            0 -1 2 18997760 -299588638 -438368840 -1083511636 -771751937
            -4347533 1329588192 -238185264</internalNodes>
          <leafValues>
            -3.9602640271186829e-01 2.5318697094917297e-01</leafValues></_>
        <_>
          <internalNodes>
            0 -1 152 11279733 -632357385 -759513245 -1799744196
            -362132235 -85724837 -17114692 -1090879760</internalNodes>
          <leafValues>
            -3.7942475080490112e-01 2.4316674470901489e-01</leafValues></_>
        <_>
          <internalNodes>
            0 -1 221 1432740867 1617422295 1816328541 90505019
            -598277373 -33666394 -227255394 -211289253</internalNodes>
          <leafValues>
            -3.0839490890502930e-01 2.9699385166168213e-01</leafValues></_>
        <_>
          <internalNodes>
            0 -1 56 -26349726 -957511732 265064800 1140802588
            -1792810240 2244648 1644671846 2012214975</internalNodes>
          <leafValues>
            -4.0673741698265076e-01 2.3734700679779053e-01</leafValues></_>
        <_>
          <internalNodes>
            0 -1 253 -34279444 -235385820 -1505763451 -235577506
            -1901002784 -463218940 -1494552602 2143289261</internalNodes>
          <leafValues>
            -2.9545888304710388e-01 3.2623389363288879e-01</leafValues></_>
        <_>
          <internalNodes>
            0 -1 147 951065972 -1188007492 -1289756715 -1112275692
            -1627387531 -1174918161 -1162817540 -1365108636</internalNodes>
          <leafValues>
            -3.9357951283454895e-01 2.5236704945564270e-01</leafValues></_>
        <_>
          <internalNodes>
            0 -1 107 -82185259 -709484396 712327611 692429023 821862187
            -51782029 2134049570 1006086799</internalNodes>
          <leafValues>
            -3.3694940805435181e-01 2.8939878940582275e-01</leafValues></_>
        <_>
          <internalNodes>
            0 -1 11 1988061895 -273712185 -2145943070 -234899742
            699125039 1262639619 -1091831646 1931473071</internalNodes>
          <leafValues>
            -3.0845597386360168e-01 3.2120436429977417e-01</leafValues></_>
        <_>
          <internalNodes>
            0 -1 164 1028235323 -28776912 775138493 142835143
            -1104179692 -613538009 1140914911 675995462</internalNodes>
          <leafValues>
            -4.1767269372940063e-01 2.3130880296230316e-01</leafValues></_>
        <_>
          <internalNodes>
            0 -1 118 545267540 81303021 935673623 -1368358626
            -1398285510 -308955025 998186762 -1506363532</internalNodes>
          <leafValues>
            -4.1563352942466736e-01 2.3159271478652954e-01</leafValues></_>
        <_>
          <internalNodes>
            0 -1 84 -705505329 -92842777 -291924798 -793586090
            -392688892 590512194 -271853398 -696812585</internalNodes>
          <leafValues>
            -3.3238220214843750e-01 2.8025075793266296e-01</leafValues></_></weakClassifiers></_>
    <!-- stage 17 -->
    <_>
      <maxWeakCount>13</maxWeakCount>
      <stageThreshold>-1.5916510820388794e+00</stageThreshold>
      <weakClassifiers>
        <_>
          <internalNodes>
            0 -1 256 -1 -67373155 -162005854 -19271713 -269492225
            -20989461 -1033 -4194305</internalNodes>
          <leafValues>
            -5.3396970033645630e-01 1.5987460315227509e-01</leafValues></_>
        <_>
          <internalNodes>
            0 -1 111 -151073769 -68334229 1926169855 -227351221
            -138851249 -1089759165 -88355666 -225976321</internalNodes>
          <leafValues>
            -3.0001974105834961e-01 2.9466730356216431e-01</leafValues></_>
        <_>
          <internalNodes>
            0 -1 69 94679216 1173618864 498989045 2138947956 111590847
            -273943810 209470901 1281164496</internalNodes>
          <leafValues>
            -5.0370472669601440e-01 1.6994036734104156e-01</leafValues></_>
        <_>
          <internalNodes>
            0 -1 19 -591671152 -620830763 2122129994 -57710910
            -1828076333 -752508725 -90450032 521114363</internalNodes>
          <leafValues>
            -3.1781581044197083e-01 2.7225244045257568e-01</leafValues></_>
        <_>
          <internalNodes>
            0 -1 136 -454756652 -117637636 -420094619 -975845305
            -731850778 -4428004 -9377905 665823884</internalNodes>
          <leafValues>
            -3.8491606712341309e-01 2.4764005839824677e-01</leafValues></_>
        <_>
          <internalNodes>
            0 -1 199 -102801579 453313349 826277887 1903161119
            -151077891 -2252275 1245881528 -281874593</internalNodes>
          <leafValues>
            -2.9121908545494080e-01 3.1200364232063293e-01</leafValues></_>
        <_>
          <internalNodes>
            0 -1 247 -102506302 -897447768 8931328 1246846158 -183921982
            654332484 296059338 1397471371</internalNodes>
          <leafValues>
            -3.5915046930313110e-01 2.4795164167881012e-01</leafValues></_>
        <_>
          <internalNodes>
            0 -1 180 680274224 -1669181404 -459979 -1209902255 717896112
            -1162657515 478165936 -1074866972</internalNodes>
          <leafValues>
            -4.3338045477867126e-01 2.0628069341182709e-01</leafValues></_>
        <_>
          <internalNodes>
            0 -1 133 -1944836559 -830936869 -1563955209 -1409385113
            -946537195 -1098136163 -1376454912 -1737221052</internalNodes>
          <leafValues>
            -4.1381940245628357e-01 2.0195126533508301e-01</leafValues></_>
        <_>
          <internalNodes>
            0 -1 15 2002705898 -51048216 90183296 1436511327 -1546852224
            11021312 17406435 1910230567</internalNodes>
          <leafValues>
            -3.1270745396614075e-01 2.8795585036277771e-01</leafValues></_>
        <_>
          <internalNodes>
            0 -1 21 -71776767 -1645760530 -319357874 -18874644
            2134409180 -1100096164 -1527320580 -8593454</internalNodes>
          <leafValues>
            -2.8083306550979614e-01 3.1710615754127502e-01</leafValues></_>
        <_>
          <internalNodes>
            0 -1 156 -713496335 1987769219 -1081217605 -39935862
            1706794372 2141903798 350969988 2112253583</internalNodes>
          <leafValues>
            -3.1702169775962830e-01 2.9276564717292786e-01</leafValues></_>
        <_>
          <internalNodes>
            0 -1 218 -489304657 -1551045791 -1981446304 -170557608
            80404447 164647755 -1667971967 -989856540</internalNodes>
          <leafValues>
            -3.3848929405212402e-01 2.6690676808357239e-01</leafValues></_></weakClassifiers></_>
    <!-- stage 18 -->
    <_>
      <maxWeakCount>16</maxWeakCount>
      <stageThreshold>-1.4294352531433105e+00</stageThreshold>
      <weakClassifiers>
        <_>
          <internalNodes>
            0 -1 240 -956306769 1946154971 570818716 1090447867
            -84957234 2126769375 -231560470 -252188937</internalNodes>
          <leafValues>
            -6.1144745349884033e-01 -9.0539164841175079e-02</leafValues></_>
        <_>
          <internalNodes>
            0 -1 211 -635699116 -75551665 -1730216257 -586469351
            -566445348 -556800393 -153096229 -633155845</internalNodes>
          <leafValues>
            -3.4308010339736938e-01 2.2384746372699738e-01</leafValues></_>
        <_>
          <internalNodes>
            0 -1 16 -549992081 -1256198417 2119089678 -1595505100
            -57023776 -188262463 -2595112 -1069160411</internalNodes>
          <leafValues>
            -3.9634355902671814e-01 2.0354153215885162e-01</leafValues></_>
        <_>
          <internalNodes>
            0 -1 190 -1363276451 711473426 -100808005 -1363535236
            -1370071179 -33899718 -1933940892 -1414641612</internalNodes>
          <leafValues>
            -3.9438566565513611e-01 2.4113346636295319e-01</leafValues></_>
        <_>
          <internalNodes>
            0 -1 228 -269496529 -441647196 -285216794 -37749505
            -1233258721 1844771711 -956303873 -134217731</internalNodes>
          <leafValues>
            -2.2638162970542908e-01 3.8798603415489197e-01</leafValues></_>
        <_>
          <internalNodes>
            0 -1 243 -150483278 -137714680 1343522498 1417614029
            -488653302 579889220 -111019553 1381729099</internalNodes>
          <leafValues>
            -3.0401217937469482e-01 2.8282535076141357e-01</leafValues></_>
        <_>
          <internalNodes>
            0 -1 77 -1809796804 629087541 -648836573 238495807
            -1517412449 -536949079 1529287483 1534831131</internalNodes>
          <leafValues>
            -4.0689519047737122e-01 2.0113231241703033e-01</leafValues></_>
        <_>
          <internalNodes>
            0 -1 150 -2068815503 -1208453185 -66049 -1112859137
            -2134964993 -3276803 -1361559811 -1078258437</internalNodes>
          <leafValues>
            -2.1990704536437988e-01 3.8010954856872559e-01</leafValues></_>
        <_>
          <internalNodes>
            0 -1 201 -1013583897 -355423501 -1843307148 -42930526
            1288208066 -830501962 1432176960 -638525474</internalNodes>
          <leafValues>
            -3.3913829922676086e-01 2.5613975524902344e-01</leafValues></_>
        <_>
          <internalNodes>
            0 -1 8 -1079064340 -293699488 -171925401 1710162966
            -676681046 -1477638974 330021774 1737916557</internalNodes>
          <leafValues>
            -3.4309250116348267e-01 2.4591839313507080e-01</leafValues></_>
        <_>
          <internalNodes>
            0 -1 189 -1092076451 -1074567395 -34804041 -1152249765
            -1494717320 -1133744475 -400682253 -1075950103</internalNodes>
          <leafValues>
            -2.9885241389274597e-01 2.8868630528450012e-01</leafValues></_>
        <_>
          <internalNodes>
            0 -1 57 -580390929 -318374013 -16820704 -227545556
            -1109393635 1172291527 -168319836 -402669617</internalNodes>
          <leafValues>
            -2.7902206778526306e-01 3.1669908761978149e-01</leafValues></_>
        <_>
          <internalNodes>
            0 -1 208 1494731392 361954944 -33591344 1461317073
            -1409373302 -1148651767 -1283605056 -873473829</internalNodes>
          <leafValues>
            -2.7568453550338745e-01 3.2792678475379944e-01</leafValues></_>
        <_>
          <internalNodes>
            0 -1 128 1346676620 420521251 261401263 1999668272
            1684033455 532400225 -946633800 1770793859</internalNodes>
          <leafValues>
            -4.0971919894218445e-01 2.1219417452812195e-01</leafValues></_>
        <_>
          <internalNodes>
            0 -1 67 2119953409 1399521807 4605486 269453406 -837128160
            1175668738 -1252522173 1398013466</internalNodes>
          <leafValues>
            -3.6251616477966309e-01 2.4956634640693665e-01</leafValues></_>
        <_>
          <internalNodes>
            0 -1 62 -667290944 -890664734 236167603 -615934451
            -934026502 -821985183 1363603921 1533002570</internalNodes>
          <leafValues>
            -3.3117845654487610e-01 2.6676639914512634e-01</leafValues></_></weakClassifiers></_>
    <!-- stage 19 -->
    <_>
      <maxWeakCount>15</maxWeakCount>
      <stageThreshold>-1.3845685720443726e+00</stageThreshold>
      <weakClassifiers>
        <_>
          <internalNodes>
            0 -1 187 -18890017 -538994857 -1705994497 1513996063
            -1194880886 -17335298 -84955169 -16941061</internalNodes>
          <leafValues>
            -5.8537822961807251e-01 -5.6603774428367615e-02</leafValues></_>
        <_>
          <internalNodes>
            0 -1 90 -50860289 -68090291 1247471166 1376047682 408437897
            -43070883 -859028990 -75806642</internalNodes>
          <leafValues>
            -3.3690044283866882e-01 2.2201040387153625e-01</leafValues></_>
        <_>
          <internalNodes>
            0 -1 36 -1049362 -704940314 754085636 1971134335 -159392892
            -2098923916 578615274 -32833</internalNodes>
          <leafValues>
            -1.8845672905445099e-01 4.0637618303298950e-01</leafValues></_>
        <_>
          <internalNodes>
            0 -1 149 15733845 1072721653 -6760993 -1109452684
            -1403228955 -90477638 -1449755729 -1162343008</internalNodes>
          <leafValues>
            -3.0689954757690430e-01 2.5360289216041565e-01</leafValues></_>
        <_>
          <internalNodes>
            0 -1 23 -1155992864 -668421438 -108836222 1523249354
            324399344 -659373694 -141541360 1527268511</internalNodes>
          <leafValues>
            -3.3925399184226990e-01 2.5544339418411255e-01</leafValues></_>
        <_>
          <internalNodes>
            0 -1 89 -1433753933 -827655752 -96510155 -544409500
            -805395569 -288384016 462139598 -823623600</internalNodes>
          <leafValues>
            -3.5001811385154724e-01 2.1984815597534180e-01</leafValues></_>
        <_>
          <internalNodes>
            0 -1 124 56060586 1711842496 -2009825424 1075376320
            289462272 -137370679 1464885824 -615450664</internalNodes>
          <leafValues>
            -4.6713396906852722e-01 1.7539133131504059e-01</leafValues></_>
        <_>
          <internalNodes>
            0 -1 91 -83887618 -197459982 1413786865 -5710755 -173826588
            -1531908124 -641393319 -841483033</internalNodes>
          <leafValues>
            -3.0209863185882568e-01 2.7477940917015076e-01</leafValues></_>
        <_>
          <internalNodes>
            0 -1 75 1090004627 928231379 -2070064299 21280501 1764468205
            -50611779 1830841782 86327861</internalNodes>
          <leafValues>
            -4.0160587430000305e-01 2.2101883590221405e-01</leafValues></_>
        <_>
          <internalNodes>
            0 -1 13 -891568000 -1073551254 -45497650 -674665768
            -1022827902 -748829526 -335554749 2068566735</internalNodes>
          <leafValues>
            -3.3586683869361877e-01 2.6097977161407471e-01</leafValues></_>
        <_>
          <internalNodes>
            0 -1 22 1072635690 1978654349 1036844686 2128267984
            -1016733855 -168004715 -847321484 -70337753</internalNodes>
          <leafValues>
            -3.2809329032897949e-01 2.6110443472862244e-01</leafValues></_>
        <_>
          <internalNodes>
            0 -1 98 2000724992 362319669 -1359925444 293168707
            1555762573 1068432823 -299693293 836192648</internalNodes>
          <leafValues>
            -4.5810952782630920e-01 1.8905816972255707e-01</leafValues></_>
        <_>
          <internalNodes>
            0 -1 192 -867344256 2096686949 -133923428 1786371599
            1895056160 1449913108 -1386009854 259243839</internalNodes>
          <leafValues>
            -5.4317450523376465e-01 1.5828238427639008e-01</leafValues></_>
        <_>
          <internalNodes>
            0 -1 248 -112335958 -519048862 -286411534 -137427830
            1990310218 1876149874 -234227982 2004875486</internalNodes>
          <leafValues>
            -3.0643099546432495e-01 2.8891369700431824e-01</leafValues></_>
        <_>
          <internalNodes>
            0 -1 194 942675893 1033731329 -1148062735 -1147330384
            816995029 -1346425227 -1896857606 -1461054287</internalNodes>
          <leafValues>
            -3.1046712398529053e-01 2.7843979001045227e-01</leafValues></_></weakClassifiers></_>
    <!-- stage 20 -->
    <_>
      <maxWeakCount>16</maxWeakCount>
      <stageThreshold>-1.2568150758743286e+00</stageThreshold>
      <weakClassifiers>
        <_>
          <internalNodes>
            0 -1 250 -570601473 -67114001 -17006593 -573056517
            -379601121 -73408513 -269770754 -1048609</internalNodes>
          <leafValues>
            -5.3612822294235229e-01 1.0418143123388290e-01</leafValues></_>
        <_>
          <internalNodes>
            0 -1 146 -151462435 -67846659 -229634 -4817508 -1258780244
            -16777249 -1638403 -1145369505</internalNodes>
          <leafValues>
            -2.6746374368667603e-01 3.1461727619171143e-01</leafValues></_>
        <_>
          <internalNodes>
            0 -1 38 -680529421 -1817607454 1006630642 -1140854800
            1610589439 -269486215 2004710887 -268438793</internalNodes>
          <leafValues>
            -2.5620204210281372e-01 3.1605100631713867e-01</leafValues></_>
        <_>
          <internalNodes>
            0 -1 71 1121887140 -684284132 -1585676684 18261261
            -186765395 -1342230812 -1011659793 261033247</internalNodes>
          <leafValues>
            -4.4683408737182617e-01 1.7685174942016602e-01</leafValues></_>
        <_>
          <internalNodes>
            0 -1 160 -368026704 -1132955984 -245476939 2078042620
            -1220018635 -109102924 259413176 -1406533440</internalNodes>
          <leafValues>
            -4.2712244391441345e-01 2.0471143722534180e-01</leafValues></_>
        <_>
          <internalNodes>
            0 -1 158 1434722478 376485621 -1533571137 -35016654
            1146441213 1760918999 747274239 29429250</internalNodes>
          <leafValues>
            -4.0192428231239319e-01 1.8709385395050049e-01</leafValues></_>
        <_>
          <internalNodes>
            0 -1 143 -1497473259 -1460254155 -1697925 -1464664300
            -1936898699 -269630279 -336046735 -1128598484</internalNodes>
          <leafValues>
            -3.6505535244941711e-01 2.2290413081645966e-01</leafValues></_>
        <_>
          <internalNodes>
            0 -1 249 1349590922 1509415369 -259698176 269912564
            -2080732662 1631164541 -202655094 64336859</internalNodes>
          <leafValues>
            -3.7302452325820923e-01 2.2461347281932831e-01</leafValues></_>
        <_>
          <internalNodes>
            0 -1 209 -1555257598 -2039550190 -1722855280 1389875922
            467183116 1787587072 -724068410 -705700412</internalNodes>
          <leafValues>
            -3.7500128149986267e-01 2.1772672235965729e-01</leafValues></_>
        <_>
          <internalNodes>
            0 -1 48 -1426092534 446327514 1511471520 2099935576
            1181215773 -1460404870 1166275033 -438059213</internalNodes>
          <leafValues>
            -3.5540634393692017e-01 2.3159007728099823e-01</leafValues></_>
        <_>
          <internalNodes>
            0 -1 24 -143990844 -23740116 -2138558895 887446469
            -1207248672 -1833383888 119842019 2147210687</internalNodes>
          <leafValues>
            -2.9571643471717834e-01 2.8978487849235535e-01</leafValues></_>
        <_>
          <internalNodes>
            0 -1 114 -324352508 442660301 -1074299907 -1074381838
            717072260 -1111258365 -74625083 547373062</internalNodes>
          <leafValues>
            -4.5146945118904114e-01 1.9311930239200592e-01</leafValues></_>
        <_>
          <internalNodes>
            0 -1 233 -856855539 1464978727 -1610430796 -231698346
            -86421940 470742633 -1092356388 -245040257</internalNodes>
          <leafValues>
            -3.3708813786506653e-01 2.5487709045410156e-01</leafValues></_>
        <_>
          <internalNodes>
            0 -1 235 -250629485 167950234 425499056 -1700057622
            229095750 8127723 1325922080 1111999882</internalNodes>
          <leafValues>
            -3.7566518783569336e-01 2.2891990840435028e-01</leafValues></_>
        <_>
          <internalNodes>
            0 -1 120 385747488 -1240210590 -537205130 -153182336
            2008770372 -7325197 -50699276 -23281216</internalNodes>
          <leafValues>
            -3.9982160925865173e-01 2.0625232160091400e-01</leafValues></_>
        <_>
          <internalNodes>
            0 -1 9 1887420025 -1842570250 -1979912696 972313004
            1146702165 -1764204053 1682389596 1092053909</internalNodes>
          <leafValues>
            -3.6776295304298401e-01 2.3279133439064026e-01</leafValues></_></weakClassifiers></_>
    <!-- stage 21 -->
    <_>
      <maxWeakCount>17</maxWeakCount>
      <stageThreshold>-1.4685446023941040e+00</stageThreshold>
      <weakClassifiers>
        <_>
          <internalNodes>
            0 -1 53 -1154222959 -2111757 -1322943525 -44322109 -78381077
            -649602127 -818414597 -11548973</internalNodes>
          <leafValues>
            -5.5582821369171143e-01 1.2765957042574883e-02</leafValues></_>
        <_>
          <internalNodes>
            0 -1 210 -19250092 -22033413 -1122986019 -618588157
            -1464296724 -65477446 -524749825 -88409241</internalNodes>
          <leafValues>
            -2.9871803522109985e-01 2.4130040407180786e-01</leafValues></_>
        <_>
          <internalNodes>
            0 -1 83 -578823589 1937109018 -559153545 402840190
            1971048540 -60600083 -549859108 -680277926</internalNodes>
          <leafValues>
            -2.7062895894050598e-01 2.7340468764305115e-01</leafValues></_>
        <_>
          <internalNodes>
            0 -1 200 -281337761 1061005934 -1948069889 1901755773
            -1103265984 -235919 275791544 -1390909083</internalNodes>
          <leafValues>
            -3.3273297548294067e-01 2.2410646080970764e-01</leafValues></_>
        <_>
          <internalNodes>
            0 -1 119 1964046320 894447364 -609307120 659635457
            -975651115 649117087 -1343573000 82673756</internalNodes>
          <leafValues>
            -3.7239849567413330e-01 2.2980774939060211e-01</leafValues></_>
        <_>
          <internalNodes>
            0 -1 144 2021954752 422899649 1334692082 -1702327381
            1950639509 -573099793 1958675619 1609499439</internalNodes>
          <leafValues>
            -4.0033963322639465e-01 1.8771159648895264e-01</leafValues></_>
        <_>
          <internalNodes>
            0 -1 131 50659842 -1907915874 -1174807825 264367260
            -738902253 -14552134 1604114224 1302432320</internalNodes>
          <leafValues>
            -5.2082103490829468e-01 1.5123264491558075e-01</leafValues></_>
        <_>
          <internalNodes>
            0 -1 148 -831525950 -1463525462 1376550528 -909968442
            -674259052 -1177102306 -1287136349 -775694809</internalNodes>
          <leafValues>
            -3.7438029050827026e-01 2.0879560708999634e-01</leafValues></_>
        <_>
          <internalNodes>
            0 -1 5 -170336788 -815280671 -151005462 -234907082
            -589111857 -269488243 -1631986437 2142094539</internalNodes>
          <leafValues>
            -2.2958819568157196e-01 3.4786927700042725e-01</leafValues></_>
        <_>
          <internalNodes>
            0 -1 64 -403993941 1089415275 1812242978 1378642322 21692783
            26710019 2001188100 -739256609</internalNodes>
          <leafValues>
            -2.9134166240692139e-01 2.7147924900054932e-01</leafValues></_>
        <_>
          <internalNodes>
            0 -1 81 552122128 -1396027956 -2016342233 -1953002286
            -1864704480 -1476862619 2081434495 244591447</internalNodes>
          <leafValues>
            -4.7892740368843079e-01 1.6109646856784821e-01</leafValues></_>
        <_>
          <internalNodes>
            0 -1 145 -992004 -372197023 -1401904620 1560117912 340847831
            426460693 -1260093442 36835167</internalNodes>
          <leafValues>
            -4.1891226172447205e-01 1.8771864473819733e-01</leafValues></_>
        <_>
          <internalNodes>
            0 -1 254 1306923493 -9570455 -136120798 -74277 -692138113
            1841668045 1140258239 2146515455</internalNodes>
          <leafValues>
            -2.6362520456314087e-01 2.9675194621086121e-01</leafValues></_>
        <_>
          <internalNodes>
            0 -1 182 638236977 -1271094411 -766262793 -227274 1032379325
            -1107757927 738196733 -1392633668</internalNodes>
          <leafValues>
            -3.0401766300201416e-01 2.5863659381866455e-01</leafValues></_>
        <_>
          <internalNodes>
            0 -1 110 1949615360 866925475 -389139691 -1073796179
            -710060875 -186057757 -30659668 483282093</internalNodes>
          <leafValues>
            -4.2880141735076904e-01 1.8060161173343658e-01</leafValues></_>
        <_>
          <internalNodes>
            0 -1 112 1786703143 -479277115 -419694794 -617448665
            -319142644 1149009781 -403399426 -17639441</internalNodes>
          <leafValues>
            -2.7172878384590149e-01 3.1084918975830078e-01</leafValues></_>
        <_>
          <internalNodes>
            0 -1 141 131744917 -33813676 -1152149092 -1112010447
            -1499791363 -1182498389 -306828300 -1381213992</internalNodes>
          <leafValues>
            -3.6869975924491882e-01 2.2396694123744965e-01</leafValues></_></weakClassifiers></_></stages>
  <features>
    <_>
      <rect>
        0 0 1 1</rect></_>
    <_>
      <rect>
        0 0 3 3</rect></_>
    <_>
      <rect>
        0 0 3 4</rect></_>
    <_>
      <rect>
        0 0 7 3</rect></_>
    <_>
      <rect>
        0 0 12 2</rect></_>
    <_>
      <rect>
        0 1 1 1</rect></_>
    <_>
      <rect>
        0 1 6 5</rect></_>
    <_>
      <rect>
        0 5 4 6</rect></_>
    <_>
      <rect>
        0 7 1 1</rect></_>
    <_>
      <rect>
        0 8 4 12</rect></_>
    <_>
      <rect>
        0 9 1 2</rect></_>
    <_>
      <rect>
        0 10 1 1</rect></_>
    <_>
      <rect>
        0 13 1 1</rect></_>
    <_>
      <rect>
        0 14 1 1</rect></_>
    <_>
      <rect>
        0 16 1 1</rect></_>
    <_>
      <rect>
        0 23 1 1</rect></_>
    <_>
      <rect>
        0 25 7 7</rect></_>
    <_>
      <rect>
        0 28 12 5</rect></_>
    <_>
      <rect>
        0 29 1 1</rect></_>
    <_>
      <rect>
        0 30 1 1</rect></_>
    <_>
      <rect>
        0 32 1 1</rect></_>
    <_>
      <rect>
        0 34 3 4</rect></_>
    <_>
      <rect>
        0 37 3 3</rect></_>
    <_>
      <rect>
        0 38 1 1</rect></_>
    <_>
      <rect>
        0 39 1 1</rect></_>
    <_>
      <rect>
        1 0 7 1</rect></_>
    <_>
      <rect>
        1 0 12 4</rect></_>
    <_>
      <rect>
        1 3 9 8</rect></_>
    <_>
      <rect>
        1 6 4 3</rect></_>
    <_>
      <rect>
        1 7 1 1</rect></_>
    <_>
      <rect>
        1 7 4 9</rect></_>
    <_>
      <rect>
        1 8 6 11</rect></_>
    <_>
      <rect>
        1 16 11 9</rect></_>
    <_>
      <rect>
        1 18 7 8</rect></_>
    <_>
      <rect>
        1 20 4 7</rect></_>
    <_>
      <rect>
        1 25 10 7</rect></_>
    <_>
      <rect>
        1 31 1 1</rect></_>
    <_>
      <rect>
        2 0 6 11</rect></_>
    <_>
      <rect>
        2 1 5 3</rect></_>
    <_>
      <rect>
        2 8 1 1</rect></_>
    <_>
      <rect>
        2 9 4 5</rect></_>
    <_>
      <rect>
        2 14 3 4</rect></_>
    <_>
      <rect>
        2 21 3 5</rect></_>
    <_>
      <rect>
        2 27 5 4</rect></_>
    <_>
      <rect>
        2 36 12 3</rect></_>
    <_>
      <rect>
        3 0 3 5</rect></_>
    <_>
      <rect>
        3 0 4 5</rect></_>
    <_>
      <rect>
        3 0 10 10</rect></_>
    <_>
      <rect>
        3 2 5 14</rect></_>
    <_>
      <rect>
        3 4 3 5</rect></_>
    <_>
      <rect>
        4 0 7 4</rect></_>
    <_>
      <rect>
        4 2 4 3</rect></_>
    <_>
      <rect>
        4 15 8 5</rect></_>
    <_>
      <rect>
        5 0 2 2</rect></_>
    <_>
      <rect>
        5 3 3 6</rect></_>
    <_>
      <rect>
        5 8 1 1</rect></_>
    <_>
      <rect>
        5 15 1 1</rect></_>
    <_>
      <rect>
        5 16 1 1</rect></_>
    <_>
      <rect>
        5 20 5 6</rect></_>
    <_>
      <rect>
        5 21 1 1</rect></_>
    <_>
      <rect>
        5 24 1 1</rect></_>
    <_>
      <rect>
        6 0 5 2</rect></_>
    <_>
      <rect>
        6 6 1 1</rect></_>
    <_>
      <rect>
        6 8 1 1</rect></_>
    <_>
      <rect>
        6 19 1 2</rect></_>
    <_>
      <rect>
        6 21 1 1</rect></_>
    <_>
      <rect>
        6 28 3 4</rect></_>
    <_>
      <rect>
        6 30 1 2</rect></_>
    <_>
      <rect>
        6 32 1 1</rect></_>
    <_>
      <rect>
        7 0 3 3</rect></_>
    <_>
      <rect>
        7 0 3 5</rect></_>
    <_>
      <rect>
        7 0 7 6</rect></_>
    <_>
      <rect>
        7 1 3 6</rect></_>
    <_>
      <rect>
        7 13 1 1</rect></_>
    <_>
      <rect>
        7 29 3 4</rect></_>
    <_>
      <rect>
        8 0 6 3</rect></_>
    <_>
      <rect>
        8 8 7 6</rect></_>
    <_>
      <rect>
        8 9 6 7</rect></_>
    <_>
      <rect>
        8 13 8 6</rect></_>
    <_>
      <rect>
        8 13 9 11</rect></_>
    <_>
      <rect>
        8 16 4 5</rect></_>
    <_>
      <rect>
        8 17 7 5</rect></_>
    <_>
      <rect>
        8 29 1 1</rect></_>
    <_>
      <rect>
        8 29 2 4</rect></_>
    <_>
      <rect>
        8 34 1 1</rect></_>
    <_>
      <rect>
        8 35 3 3</rect></_>
    <_>
      <rect>
        9 0 1 2</rect></_>
    <_>
      <rect>
        9 0 3 2</rect></_>
    <_>
      <rect>
        9 2 3 5</rect></_>
    <_>
      <rect>
        9 9 2 3</rect></_>
    <_>
      <rect>
        9 31 2 3</rect></_>
    <_>
      <rect>
        9 34 7 4</rect></_>
    <_>
      <rect>
        9 35 1 1</rect></_>
    <_>
      <rect>
        9 35 2 2</rect></_>
    <_>
      <rect>
        9 37 1 1</rect></_>
    <_>
      <rect>
        10 0 1 1</rect></_>
    <_>
      <rect>
        10 2 5 6</rect></_>
    <_>
      <rect>
        10 12 7 6</rect></_>
    <_>
      <rect>
        10 18 3 4</rect></_>
    <_>
      <rect>
        10 18 3 6</rect></_>
    <_>
      <rect>
        10 18 4 5</rect></_>
    <_>
      <rect>
        10 19 6 6</rect></_>
    <_>
      <rect>
        10 36 2 2</rect></_>
    <_>
      <rect>
        10 43 1 1</rect></_>
    <_>
      <rect>
        10 43 3 1</rect></_>
    <_>
      <rect>
        11 0 1 1</rect></_>
    <_>
      <rect>
        11 9 7 5</rect></_>
    <_>
      <rect>
        11 12 5 7</rect></_>
    <_>
      <rect>
        11 15 3 6</rect></_>
    <_>
      <rect>
        11 15 5 6</rect></_>
    <_>
      <rect>
        11 20 2 4</rect></_>
    <_>
      <rect>
        11 37 1 1</rect></_>
    <_>
      <rect>
        11 43 1 1</rect></_>
    <_>
      <rect>
        12 0 1 1</rect></_>
    <_>
      <rect>
        12 6 3 6</rect></_>
    <_>
      <rect>
        12 6 4 11</rect></_>
    <_>
      <rect>
        12 16 4 4</rect></_>
    <_>
      <rect>
        12 19 4 7</rect></_>
    <_>
      <rect>
        12 19 6 4</rect></_>
    <_>
      <rect>
        12 22 3 4</rect></_>
    <_>
      <rect>
        12 25 1 1</rect></_>
    <_>
      <rect>
        12 34 2 4</rect></_>
    <_>
      <rect>
        12 40 1 1</rect></_>
    <_>
      <rect>
        13 4 2 5</rect></_>
    <_>
      <rect>
        13 8 4 11</rect></_>
    <_>
      <rect>
        13 16 4 6</rect></_>
    <_>
      <rect>
        13 17 4 3</rect></_>
    <_>
      <rect>
        13 18 4 6</rect></_>
    <_>
      <rect>
        13 20 4 3</rect></_>
    <_>
      <rect>
        13 40 1 1</rect></_>
    <_>
      <rect>
        14 0 5 4</rect></_>
    <_>
      <rect>
        14 4 4 11</rect></_>
    <_>
      <rect>
        14 5 3 4</rect></_>
    <_>
      <rect>
        14 11 2 2</rect></_>
    <_>
      <rect>
        14 12 4 9</rect></_>
    <_>
      <rect>
        14 16 4 6</rect></_>
    <_>
      <rect>
        14 20 5 6</rect></_>
    <_>
      <rect>
        15 0 2 1</rect></_>
    <_>
      <rect>
        15 0 3 1</rect></_>
    <_>
      <rect>
        15 0 7 1</rect></_>
    <_>
      <rect>
        15 0 7 5</rect></_>
    <_>
      <rect>
        16 0 1 1</rect></_>
    <_>
      <rect>
        16 7 1 2</rect></_>
    <_>
      <rect>
        16 11 1 1</rect></_>
    <_>
      <rect>
        16 12 4 6</rect></_>
    <_>
      <rect>
        16 20 3 7</rect></_>
    <_>
      <rect>
        16 31 1 2</rect></_>
    <_>
      <rect>
        16 34 1 1</rect></_>
    <_>
      <rect>
        16 34 6 3</rect></_>
    <_>
      <rect>
        16 35 1 1</rect></_>
    <_>
      <rect>
        16 36 1 1</rect></_>
    <_>
      <rect>
        16 37 2 3</rect></_>
    <_>
      <rect>
        16 40 1 1</rect></_>
    <_>
      <rect>
        16 41 1 1</rect></_>
    <_>
      <rect>
        17 0 6 2</rect></_>
    <_>
      <rect>
        17 2 2 4</rect></_>
    <_>
      <rect>
        17 11 4 5</rect></_>
    <_>
      <rect>
        17 19 5 7</rect></_>
    <_>
      <rect>
        17 21 3 3</rect></_>
    <_>
      <rect>
        17 33 6 4</rect></_>
    <_>
      <rect>
        17 39 2 2</rect></_>
    <_>
      <rect>
        17 41 1 1</rect></_>
    <_>
      <rect>
        17 42 1 1</rect></_>
    <_>
      <rect>
        18 0 1 1</rect></_>
    <_>
      <rect>
        18 1 4 2</rect></_>
    <_>
      <rect>
        18 6 2 4</rect></_>
    <_>
      <rect>
        18 6 6 3</rect></_>
    <_>
      <rect>
        18 15 3 5</rect></_>
    <_>
      <rect>
        18 17 3 5</rect></_>
    <_>
      <rect>
        18 34 1 1</rect></_>
    <_>
      <rect>
        19 0 6 3</rect></_>
    <_>
      <rect>
        19 6 2 5</rect></_>
    <_>
      <rect>
        19 20 3 4</rect></_>
    <_>
      <rect>
        19 25 4 7</rect></_>
    <_>
      <rect>
        19 25 6 7</rect></_>
    <_>
      <rect>
        19 37 2 3</rect></_>
    <_>
      <rect>
        19 40 1 1</rect></_>
    <_>
      <rect>
        19 41 1 1</rect></_>
    <_>
      <rect>
        20 0 4 2</rect></_>
    <_>
      <rect>
        20 3 4 5</rect></_>
    <_>
      <rect>
        20 39 1 1</rect></_>
    <_>
      <rect>
        20 40 1 1</rect></_>
    <_>
      <rect>
        20 41 1 1</rect></_>
    <_>
      <rect>
        21 0 1 1</rect></_>
    <_>
      <rect>
        21 0 2 2</rect></_>
    <_>
      <rect>
        21 1 1 1</rect></_>
    <_>
      <rect>
        21 1 3 5</rect></_>
    <_>
      <rect>
        21 1 4 2</rect></_>
    <_>
      <rect>
        21 3 5 6</rect></_>
    <_>
      <rect>
        21 8 1 1</rect></_>
    <_>
      <rect>
        21 10 1 1</rect></_>
    <_>
      <rect>
        21 12 1 1</rect></_>
    <_>
      <rect>
        21 14 4 7</rect></_>
    <_>
      <rect>
        21 27 5 5</rect></_>
    <_>
      <rect>
        21 33 1 1</rect></_>
    <_>
      <rect>
        21 36 3 2</rect></_>
    <_>
      <rect>
        21 38 2 2</rect></_>
    <_>
      <rect>
        21 40 1 1</rect></_>
    <_>
      <rect>
        21 41 1 1</rect></_>
    <_>
      <rect>
        22 4 3 6</rect></_>
    <_>
      <rect>
        22 8 2 2</rect></_>
    <_>
      <rect>
        22 22 4 8</rect></_>
    <_>
      <rect>
        22 31 3 3</rect></_>
    <_>
      <rect>
        23 0 1 1</rect></_>
    <_>
      <rect>
        23 0 5 2</rect></_>
    <_>
      <rect>
        23 2 5 11</rect></_>
    <_>
      <rect>
        23 3 4 4</rect></_>
    <_>
      <rect>
        23 28 4 3</rect></_>
    <_>
      <rect>
        23 36 1 1</rect></_>
    <_>
      <rect>
        23 43 1 1</rect></_>
    <_>
      <rect>
        24 0 1 1</rect></_>
    <_>
      <rect>
        24 0 2 2</rect></_>
    <_>
      <rect>
        24 1 1 1</rect></_>
    <_>
      <rect>
        24 2 3 2</rect></_>
    <_>
      <rect>
        24 4 4 4</rect></_>
    <_>
      <rect>
        24 9 4 4</rect></_>
    <_>
      <rect>
        24 21 4 7</rect></_>
    <_>
      <rect>
        24 36 1 1</rect></_>
    <_>
      <rect>
        24 40 1 1</rect></_>
    <_>
      <rect>
        24 43 1 1</rect></_>
    <_>
      <rect>
        25 0 1 1</rect></_>
    <_>
      <rect>
        25 3 4 12</rect></_>
    <_>
      <rect>
        25 5 4 5</rect></_>
    <_>
      <rect>
        25 6 4 8</rect></_>
    <_>
      <rect>
        25 10 4 10</rect></_>
    <_>
      <rect>
        25 27 2 4</rect></_>
    <_>
      <rect>
        25 30 3 3</rect></_>
    <_>
      <rect>
        25 37 2 1</rect></_>
    <_>
      <rect>
        25 43 1 1</rect></_>
    <_>
      <rect>
        26 0 4 3</rect></_>
    <_>
      <rect>
        26 0 4 6</rect></_>
    <_>
      <rect>
        26 37 1 1</rect></_>
    <_>
      <rect>
        27 5 3 4</rect></_>
    <_>
      <rect>
        27 8 1 1</rect></_>
    <_>
      <rect>
        27 24 1 1</rect></_>
    <_>
      <rect>
        27 28 1 2</rect></_>
    <_>
      <rect>
        27 32 1 1</rect></_>
    <_>
      <rect>
        28 25 1 1</rect></_>
    <_>
      <rect>
        28 34 1 1</rect></_>
    <_>
      <rect>
        29 0 3 4</rect></_>
    <_>
      <rect>
        29 8 3 6</rect></_>
    <_>
      <rect>
        30 0 1 1</rect></_>
    <_>
      <rect>
        30 1 1 1</rect></_>
    <_>
      <rect>
        30 7 1 1</rect></_>
    <_>
      <rect>
        30 13 1 1</rect></_>
    <_>
      <rect>
        30 15 1 2</rect></_>
    <_>
      <rect>
        30 24 1 1</rect></_>
    <_>
      <rect>
        30 38 1 1</rect></_>
    <_>
      <rect>
        30 43 1 1</rect></_>
    <_>
      <rect>
        31 0 1 1</rect></_>
    <_>
      <rect>
        31 0 2 3</rect></_>
    <_>
      <rect>
        31 43 1 1</rect></_>
    <_>
      <rect>
        32 0 1 1</rect></_>
    <_>
      <rect>
        34 39 1 1</rect></_>
    <_>
      <rect>
        35 0 1 1</rect></_>
    <_>
      <rect>
        35 10 1 2</rect></_>
    <_>
      <rect>
        35 32 1 1</rect></_></features></cascade>
</opencv_storage>
